{
    "version": "0.5.0",
    "architecture": "WaveNet",
    "config": {
        "layers": [
            {
                "input_size": 1,
                "condition_size": 1,
                "head_size": 8,
                "channels": 16,
                "kernel_size": 3,
                "dilations": [
                    1,
                    2,
                    4,
                    8,
                    16,
                    32,
                    64,
                    128,
                    256,
                    512
                ],
                "activation": "Tanh",
                "gated": false,
                "head_bias": false
            },
            {
                "input_size": 16,
                "condition_size": 1,
                "head_size": 1,
                "channels": 8,
                "kernel_size": 3,
                "dilations": [
                    1,
                    2,
                    4,
                    8,
                    16,
                    32,
                    64,
                    128,
                    256,
                    512
                ],
                "activation": "Tanh",
                "gated": false,
                "head_bias": true
            }
        ],
        "head": null,
        "head_scale": 0.02
    },
    "weights": [
        0.0022749374620616436,
        0.40447553992271423,
        -0.8287578225135803,
        -0.7285010814666748,
        -0.3206315338611603,
        0.4150961637496948,
        0.0035998437087982893,
        0.8647936582565308,
        -0.13359752297401428,
        0.2252947986125946,
        -0.4023611843585968,
        -0.1504473239183426,
        -0.9124580025672913,
        -0.6960285305976868,
        -0.2767978310585022,
        0.0005002010148018599,
        0.02703995816409588,
        0.32164356112480164,
        -0.1637657731771469,
        -0.2378292679786682,
        0.3543013334274292,
        -0.08891741186380386,
        0.15332739055156708,
        -0.20706018805503845,
        0.18894191086292267,
        0.1929284781217575,
        -0.18030013144016266,
        0.07594971358776093,
        0.0894225463271141,
        -0.3464982211589813,
        0.15235041081905365,
        -0.061476029455661774,
        0.23263679444789886,
        -0.2807087004184723,
        -0.09841939061880112,
        -0.05588217079639435,
        0.08672837167978287,
        -0.06086333468556404,
        0.3822688162326813,
        -0.14411871135234833,
        0.18307864665985107,
        -0.39119604229927063,
        0.2452474981546402,
        -0.30627909302711487,
        0.20841653645038605,
        -0.2805077135562897,
        0.2750626504421234,
        -0.23834483325481415,
        0.14938315749168396,
        0.16510611772537231,
        -0.2131699174642563,
        0.34344351291656494,
        0.23925459384918213,
        -0.2934422492980957,
        0.3095928430557251,
        0.09755031019449234,
        -0.2882644832134247,
        0.101465605199337,
        0.072269506752491,
        -0.371961385011673,
        0.27030834555625916,
        -0.11408406496047974,
        -0.0024800868704915047,
        -0.0023524353746324778,
        -0.05183415114879608,
        -0.04877517372369766,
        -0.09240757673978806,
        -0.038210127502679825,
        0.25523650646209717,
        0.09836781769990921,
        -0.037258330732584,
        -0.22842355072498322,
        0.09601146727800369,
        0.1929917186498642,
        -0.045567791908979416,
        0.1673467457294464,
        0.10226350277662277,
        -0.2965388894081116,
        0.052471406757831573,
        -0.1671014279127121,
        0.04667644575238228,
        0.08789903670549393,
        0.03627294301986694,
        -0.18141232430934906,
        0.020750742405653,
        -0.09957121312618256,
        0.15288087725639343,
        -0.10687531530857086,
        0.12959858775138855,
        -0.2585999071598053,
        0.09709932655096054,
        0.004051008261740208,
        0.27546271681785583,
        0.014132928103208542,
        -0.07014613598585129,
        -0.27525463700294495,
        0.10956661403179169,
        0.10236898809671402,
        -0.2771711051464081,
        -0.04469141736626625,
        0.2096990942955017,
        -0.07630849629640579,
        -0.02247028239071369,
        0.03835771605372429,
        -0.3119359612464905,
        0.038154035806655884,
        -0.041853733360767365,
        -0.27823084592819214,
        0.026623232290148735,
        -0.10201719403266907,
        -0.07182678580284119,
        0.13205377757549286,
        -0.15210643410682678,
        0.18129126727581024,
        -0.012242931872606277,
        -0.1454615443944931,
        0.021316098049283028,
        -0.04631098359823227,
        0.041472963988780975,
        -0.02526947483420372,
        0.1101318821310997,
        0.029700979590415955,
        -0.12998896837234497,
        0.12352936714887619,
        -0.10688493400812149,
        -0.13422133028507233,
        0.02583826519548893,
        -0.09753353893756866,
        0.00204674294218421,
        -0.18207110464572906,
        0.012223778292536736,
        -0.047335200011730194,
        -0.10816099494695663,
        -0.028234289959073067,
        0.16148459911346436,
        -0.07044655084609985,
        0.05302968621253967,
        -0.045516397804021835,
        0.12233726680278778,
        0.05671779066324234,
        0.18192440271377563,
        0.02241727150976658,
        0.16778825223445892,
        -0.06070556491613388,
        -0.0638631284236908,
        -0.035382404923439026,
        0.05089041218161583,
        0.06783294677734375,
        -0.0506480447947979,
        -0.17004835605621338,
        -0.08194519579410553,
        -0.09835707396268845,
        -0.0861896201968193,
        0.1362450271844864,
        0.10425568372011185,
        -0.1930963695049286,
        0.149952694773674,
        -0.09036187827587128,
        0.01257797610014677,
        -0.1425769329071045,
        -0.005027816165238619,
        0.012377805076539516,
        -0.04652926325798035,
        -0.133553147315979,
        0.06735824793577194,
        -0.1053762212395668,
        -0.04915906861424446,
        -0.0348222553730011,
        -0.018036093562841415,
        0.005619227420538664,
        0.039828501641750336,
        0.05047571659088135,
        0.1344228833913803,
        -0.04845737665891647,
        -0.031151726841926575,
        0.07816865295171738,
        0.08089686930179596,
        -0.16978678107261658,
        -0.017423933371901512,
        -0.08928535878658295,
        0.05633135512471199,
        -0.047235019505023956,
        0.19353273510932922,
        -0.07184461504220963,
        0.059991128742694855,
        -0.06361494958400726,
        0.04194754734635353,
        -0.02862808294594288,
        -0.013963029719889164,
        -0.014289981685578823,
        0.12150751799345016,
        -0.002221854170784354,
        7.500447100028396e-05,
        0.011720188893377781,
        -0.19822612404823303,
        0.01198115199804306,
        -0.06883497536182404,
        -0.03957149013876915,
        0.02635686844587326,
        0.010367129929363728,
        -0.0856122151017189,
        0.20212285220623016,
        -0.1006268858909607,
        -0.1896064579486847,
        0.016274819150567055,
        0.153170645236969,
        0.07586074620485306,
        0.2510376274585724,
        -0.0873972475528717,
        -0.0619732104241848,
        -0.2348436713218689,
        0.06466170400381088,
        0.18620674312114716,
        -0.16372305154800415,
        -0.09284911304712296,
        -0.15155597031116486,
        0.02165427803993225,
        -0.16961954534053802,
        -0.05331210419535637,
        0.01776374690234661,
        -0.09496577084064484,
        -0.019370369613170624,
        0.18957865238189697,
        0.08812390267848969,
        0.038650993257761,
        -0.07542327046394348,
        -0.07448410242795944,
        -0.028739720582962036,
        0.10672737658023834,
        0.0728866383433342,
        0.17344622313976288,
        -0.01604522578418255,
        -0.05389418452978134,
        -0.01492304913699627,
        0.26388049125671387,
        -0.008972465991973877,
        0.22256486117839813,
        -0.24899519979953766,
        -0.14600501954555511,
        -0.12048812210559845,
        0.19415408372879028,
        0.031075067818164825,
        -0.19827531278133392,
        0.1495048999786377,
        -0.02012648805975914,
        -0.31156739592552185,
        0.23638112843036652,
        -0.2112632393836975,
        -0.16712670028209686,
        0.11236181110143661,
        -0.16211175918579102,
        -0.14033733308315277,
        0.25888821482658386,
        0.014997342601418495,
        -0.03866460174322128,
        -0.16401000320911407,
        -0.12208335101604462,
        0.0973137691617012,
        -0.12858539819717407,
        -0.10854306817054749,
        -0.13344478607177734,
        0.14296868443489075,
        0.0849715918302536,
        0.16095511615276337,
        -0.008280419744551182,
        -0.03877165541052818,
        0.008877944201231003,
        -0.015459963120520115,
        0.13604897260665894,
        0.0977078229188919,
        -0.12013033032417297,
        -0.08301586657762527,
        -0.1969621181488037,
        0.08241856843233109,
        -0.009979287162423134,
        -0.20761853456497192,
        0.10354134440422058,
        -0.10241028666496277,
        -0.06811816245317459,
        0.10108722746372223,
        0.04042380303144455,
        -0.0214531272649765,
        -0.13576249778270721,
        0.09116203337907791,
        -0.03958941251039505,
        0.16339625418186188,
        -0.02920764684677124,
        0.10350930690765381,
        -0.08192132413387299,
        0.014167147688567638,
        -0.028170712292194366,
        0.008226566947996616,
        0.05483853071928024,
        0.046479303389787674,
        -0.09355183690786362,
        -0.07778260111808777,
        0.15212640166282654,
        -0.164958655834198,
        0.07382926344871521,
        0.003583010286092758,
        -0.12033622711896896,
        0.06655008345842361,
        -0.07822736352682114,
        -0.010750113055109978,
        -0.027974212542176247,
        -0.1051238402724266,
        -0.05070602893829346,
        -0.018368950113654137,
        0.03666883707046509,
        0.02092359960079193,
        -0.03885239362716675,
        0.0007600966491736472,
        0.01175248995423317,
        0.027816839516162872,
        0.07754149287939072,
        0.06017939746379852,
        0.012813929468393326,
        0.03247660771012306,
        0.029378995299339294,
        -0.07667243480682373,
        -0.021009311079978943,
        0.04784547910094261,
        -0.068130262196064,
        -0.09632199257612228,
        0.03707049787044525,
        0.04808097332715988,
        0.05847819522023201,
        0.05501020327210426,
        0.17874029278755188,
        -0.018683623522520065,
        -0.12169944494962692,
        -0.21881720423698425,
        0.10728753358125687,
        0.11398448050022125,
        -0.008932288736104965,
        0.0896553173661232,
        0.08032919466495514,
        0.23295187950134277,
        0.15720541775226593,
        0.08799275755882263,
        0.04793927073478699,
        -0.027280062437057495,
        0.08053012192249298,
        0.16420787572860718,
        -0.06078634038567543,
        0.09487878531217575,
        0.15305165946483612,
        0.10386557132005692,
        -0.12081003934144974,
        0.10220353305339813,
        0.025523779913783073,
        0.14159689843654633,
        -0.16467632353305817,
        0.16415531933307648,
        -0.03379334509372711,
        0.05238873511552811,
        0.184647336602211,
        0.08992084860801697,
        -0.09375158697366714,
        -0.2071862667798996,
        -0.11570483446121216,
        -0.1349698156118393,
        -0.35454878211021423,
        0.09683588147163391,
        0.09526377171278,
        -0.09243190288543701,
        0.10545620322227478,
        -0.1437772661447525,
        0.13905324041843414,
        -0.015105272643268108,
        -0.038888316601514816,
        0.0746886134147644,
        -0.15053051710128784,
        -0.07565978914499283,
        0.102144256234169,
        -0.06419256329536438,
        0.15464116632938385,
        -0.09455137699842453,
        0.12410052865743637,
        0.09225548803806305,
        0.35410505533218384,
        -0.03288291022181511,
        0.08054141700267792,
        -0.10459458827972412,
        0.04107516258955002,
        0.17098546028137207,
        -0.14264103770256042,
        0.09258900582790375,
        -0.04479214921593666,
        -0.1711457371711731,
        -0.0032259656582027674,
        -0.025585977360606194,
        -0.31949299573898315,
        -0.0965074747800827,
        -0.0965384989976883,
        -0.1292637586593628,
        0.09230411052703857,
        -0.08635099232196808,
        -0.04195430874824524,
        0.07268017530441284,
        0.12709613144397736,
        0.15924705564975739,
        -0.07499456405639648,
        0.1502772867679596,
        0.1455957293510437,
        -0.14198444783687592,
        0.11793752759695053,
        0.021093616262078285,
        -0.019432302564382553,
        0.06255540251731873,
        -0.16919583082199097,
        0.013251297175884247,
        0.11153814941644669,
        -0.0740998163819313,
        -0.06265497207641602,
        -0.03683359548449516,
        0.04005993902683258,
        -0.07368602603673935,
        0.002701152116060257,
        0.029699964448809624,
        -0.05363444611430168,
        -0.06900796294212341,
        0.09477103501558304,
        0.03395165503025055,
        0.07949575036764145,
        -0.19247786700725555,
        0.04669267684221268,
        -0.09974555671215057,
        0.014352000318467617,
        0.0052498821169137955,
        -0.11408618092536926,
        -0.026807153597474098,
        0.16639713943004608,
        0.007137392181903124,
        -0.1674661636352539,
        0.00020868190040346235,
        0.011095922440290451,
        -0.19918178021907806,
        0.10373109579086304,
        -0.14882892370224,
        -0.22502990067005157,
        -0.1039237305521965,
        -0.042137548327445984,
        0.015903975814580917,
        -0.09616730362176895,
        0.21624773740768433,
        0.04209918528795242,
        0.02034219726920128,
        0.10687632858753204,
        -0.04823070019483566,
        -0.01595793478190899,
        0.15085618197917938,
        0.21706148982048035,
        -0.0028242100961506367,
        -0.17244993150234222,
        0.043346863240003586,
        0.08407550305128098,
        -0.011939624324440956,
        -0.19652876257896423,
        0.03222949057817459,
        -0.2131679654121399,
        -0.12736916542053223,
        0.11099737137556076,
        -0.03570561483502388,
        0.12123950570821762,
        -0.005127094220370054,
        0.15485256910324097,
        -0.1066717877984047,
        -0.08592799305915833,
        0.03500215709209442,
        0.14222539961338043,
        0.06746868789196014,
        0.01409344095736742,
        -0.08663325756788254,
        0.14758606255054474,
        -0.07448524236679077,
        -0.05392073839902878,
        -0.016742030158638954,
        -0.15366299450397491,
        -0.0025002676993608475,
        -0.017526468262076378,
        -0.14339707791805267,
        -0.1922190636396408,
        0.15896500647068024,
        -0.09282281249761581,
        0.03195574879646301,
        0.1625281423330307,
        0.0025665834546089172,
        -0.07270673662424088,
        0.03212529048323631,
        -0.10461299121379852,
        -0.05594056099653244,
        0.1496327817440033,
        -0.06477129459381104,
        0.13440239429473877,
        -0.14307630062103271,
        0.036983657628297806,
        -0.19296662509441376,
        0.2244809865951538,
        0.2073211669921875,
        -0.38077637553215027,
        0.22298239171504974,
        -0.00275421398691833,
        0.33804216980934143,
        -0.0025894292630255222,
        -0.15213176608085632,
        0.29647964239120483,
        -0.0652400329709053,
        -0.12402741611003876,
        0.2924663722515106,
        -0.16819608211517334,
        0.17482882738113403,
        -0.2903715670108795,
        0.08087095618247986,
        -0.01204751618206501,
        -0.025621742010116577,
        -0.16575197875499725,
        0.08555638790130615,
        -0.1716986894607544,
        0.1104307696223259,
        -0.051747020334005356,
        0.19260376691818237,
        -0.1053679808974266,
        -0.020589035004377365,
        -0.3238464295864105,
        0.06178145110607147,
        0.051499899476766586,
        0.21091897785663605,
        -0.13322362303733826,
        -0.16023395955562592,
        0.3762460947036743,
        0.004173632245510817,
        -0.18068380653858185,
        0.13711728155612946,
        -0.2310674488544464,
        -0.07595983892679214,
        0.21514669060707092,
        -0.2204696536064148,
        -0.1315920352935791,
        0.2644425630569458,
        -0.20431485772132874,
        0.12054848670959473,
        -0.08109088987112045,
        0.02897832542657852,
        0.08002720028162003,
        0.15140753984451294,
        0.0728396475315094,
        -0.03022983856499195,
        -0.1154666543006897,
        0.1323513239622116,
        -0.0977909117937088,
        -0.07464852929115295,
        0.15195712447166443,
        -0.05237892270088196,
        0.09172026813030243,
        -0.004851939622312784,
        -0.0018153191776946187,
        0.02200073003768921,
        0.09301874786615372,
        -0.027037804946303368,
        -0.1969834417104721,
        -0.08582834154367447,
        -0.11874901503324509,
        0.14211256802082062,
        -0.06502532958984375,
        0.09869952499866486,
        -0.09343419969081879,
        -0.03311988338828087,
        0.1244242787361145,
        0.1117105558514595,
        0.0955580621957779,
        0.05893817916512489,
        -0.09410856664180756,
        -0.0900571346282959,
        0.01993643119931221,
        0.17604771256446838,
        -0.04827156662940979,
        -0.10224521905183792,
        0.11645149439573288,
        0.13844701647758484,
        -0.0036090065259486437,
        -0.05617428570985794,
        -0.12141216546297073,
        0.07195261120796204,
        0.05008285492658615,
        -0.06687577068805695,
        0.06309103220701218,
        0.11474042385816574,
        0.1181819885969162,
        0.06960098445415497,
        -0.056381870061159134,
        -0.08531369268894196,
        -0.07293400913476944,
        0.051909659057855606,
        0.05682801082730293,
        0.06427116692066193,
        -0.30384787917137146,
        0.2070496678352356,
        0.1338140219449997,
        0.31297317147254944,
        -0.19858132302761078,
        -0.05574049800634384,
        0.08239422738552094,
        0.06061207503080368,
        -0.06986744701862335,
        0.11025997996330261,
        -0.002322983695194125,
        -0.05494893714785576,
        -0.24993550777435303,
        0.07307782024145126,
        -0.07553240656852722,
        -0.16885700821876526,
        0.04183347523212433,
        -0.06362062692642212,
        -0.13458172976970673,
        0.20165397226810455,
        0.052957113832235336,
        0.1802166849374771,
        0.01878862828016281,
        0.02591763064265251,
        -0.24210582673549652,
        0.2185896933078766,
        0.025485394522547722,
        0.0377391092479229,
        -0.12508636713027954,
        -0.11830193549394608,
        0.2861455976963043,
        -0.11590440571308136,
        -0.1315125674009323,
        0.1753707230091095,
        0.016801994293928146,
        0.03509863466024399,
        0.22810909152030945,
        -0.06394582986831665,
        0.04534006118774414,
        0.13350826501846313,
        -0.13996772468090057,
        -0.13599984347820282,
        -0.17372530698776245,
        0.0424991175532341,
        -0.07546377182006836,
        -0.1149010956287384,
        0.032243337482213974,
        -0.010742171667516232,
        -0.16393543779850006,
        0.2044598013162613,
        -0.057290609925985336,
        0.1930113285779953,
        -0.1806037724018097,
        -0.010065545327961445,
        0.15135036408901215,
        -0.12721435725688934,
        0.13671760261058807,
        -0.035430751740932465,
        -0.19429108500480652,
        -0.08438514173030853,
        -0.04279349744319916,
        0.21098950505256653,
        -0.045809563249349594,
        0.14793440699577332,
        0.010518737137317657,
        -0.05886527895927429,
        0.03197430074214935,
        -0.04473750293254852,
        0.016388094052672386,
        0.18250524997711182,
        -0.1239079013466835,
        0.0974510908126831,
        -0.10638131201267242,
        0.19517196714878082,
        -0.12082307785749435,
        0.04511113837361336,
        -0.10212023556232452,
        0.05262714624404907,
        0.10979917645454407,
        0.0234992653131485,
        0.005160933826118708,
        0.06898679584264755,
        0.03431406989693642,
        -0.01468413695693016,
        0.19862544536590576,
        -0.16478204727172852,
        0.0025291701313108206,
        0.058143068104982376,
        -0.009017386473715305,
        0.035325322300195694,
        -0.09200602024793625,
        -0.06190175563097,
        -0.03248538076877594,
        0.0867311954498291,
        -0.06279996037483215,
        -0.024962270632386208,
        0.2473243623971939,
        0.01455853320658207,
        -0.056643228977918625,
        -0.29642948508262634,
        0.22273065149784088,
        -0.17514227330684662,
        -0.12642422318458557,
        0.14434590935707092,
        -0.12393587827682495,
        -0.09857669472694397,
        0.0004075652686879039,
        0.09519092738628387,
        0.06355307251214981,
        -0.14891213178634644,
        -0.01264470536261797,
        0.030138615518808365,
        -0.0226946659386158,
        0.1627136915922165,
        0.1434841752052307,
        -0.19174537062644958,
        -0.16870491206645966,
        -0.26485541462898254,
        0.30521199107170105,
        0.020982207730412483,
        0.1549004465341568,
        -0.0963468849658966,
        0.036841198801994324,
        -0.03118073381483555,
        0.25024548172950745,
        -0.1543336808681488,
        -0.1613486111164093,
        0.05641218274831772,
        -0.1515204757452011,
        -0.12723639607429504,
        0.25627216696739197,
        -0.18244841694831848,
        -0.0716220960021019,
        0.050207868218421936,
        -0.08882055431604385,
        -0.03573417291045189,
        0.09577532112598419,
        0.04304956644773483,
        -0.05264321714639664,
        0.010733677074313164,
        0.12029959261417389,
        -0.12413739413022995,
        0.20846740901470184,
        -0.14111992716789246,
        -0.2949482500553131,
        0.07756112515926361,
        0.1547607183456421,
        0.1448478251695633,
        -0.00028518374892883003,
        0.1652393639087677,
        0.28092366456985474,
        -0.1453368067741394,
        0.013412414118647575,
        0.12884008884429932,
        -0.19195815920829773,
        -0.03446066007018089,
        -0.07320607453584671,
        0.199129119515419,
        0.01988924667239189,
        0.11165052652359009,
        -0.13271625339984894,
        0.06770288199186325,
        -0.24613940715789795,
        -0.030554741621017456,
        0.03872458636760712,
        0.24716797471046448,
        -0.23916400969028473,
        0.10153601318597794,
        -0.12039654701948166,
        -0.018030453473329544,
        0.0002445662103127688,
        0.3037189543247223,
        -0.19091999530792236,
        -0.016554972156882286,
        0.21624606847763062,
        -0.21064478158950806,
        0.11985606700181961,
        0.2609976530075073,
        0.021812640130519867,
        -0.053562767803668976,
        0.32739999890327454,
        -0.15723992884159088,
        0.1784927397966385,
        0.03706803545355797,
        -0.20369850099086761,
        0.05833198130130768,
        -0.06772938370704651,
        0.07924237847328186,
        -0.019619764760136604,
        -0.10971561074256897,
        -0.062047552317380905,
        -0.09343331307172775,
        0.04643101245164871,
        0.08025282621383667,
        -0.015614612959325314,
        0.0008735202136449516,
        0.08858583867549896,
        0.18408307433128357,
        -0.04257125407457352,
        -0.01880202814936638,
        -0.05890745669603348,
        -0.04782722145318985,
        -0.036258764564991,
        -0.014489294961094856,
        0.23148015141487122,
        -0.4672711491584778,
        0.7501001954078674,
        -0.8212783932685852,
        -0.12420390546321869,
        0.9668901562690735,
        1.0380160808563232,
        -0.5531812310218811,
        0.1511545181274414,
        0.04792698472738266,
        -0.35061314702033997,
        -0.36068907380104065,
        0.34122738242149353,
        -0.636340856552124,
        0.0508679524064064,
        0.4940056800842285,
        -0.07035829871892929,
        0.2988521158695221,
        0.006670862436294556,
        0.16677960753440857,
        0.4199976921081543,
        -0.18331056833267212,
        0.11926873028278351,
        0.1451868861913681,
        0.02521064318716526,
        0.01958710514008999,
        -0.11677654087543488,
        -0.05473997816443443,
        -0.09350449591875076,
        -0.0612754300236702,
        0.3740619122982025,
        -0.3097980320453644,
        0.04924241080880165,
        -0.19478194415569305,
        -0.29344215989112854,
        0.12095819413661957,
        -0.08893099427223206,
        -0.0718047246336937,
        -0.13646657764911652,
        -0.041571926325559616,
        -0.07353139668703079,
        0.12948590517044067,
        0.019605373963713646,
        0.101676344871521,
        0.0965200886130333,
        0.002956526353955269,
        -0.11099070310592651,
        0.3944951593875885,
        -0.06852186471223831,
        0.01866946369409561,
        -0.055391911417245865,
        0.23246382176876068,
        -0.2062176614999771,
        -0.17764025926589966,
        0.02649729698896408,
        -0.24883268773555756,
        -0.12311100214719772,
        -0.22127489745616913,
        0.27378758788108826,
        -0.1370905637741089,
        0.23512715101242065,
        0.34658098220825195,
        -0.029427215456962585,
        0.11286675184965134,
        0.12178198993206024,
        -0.09133647382259369,
        0.0022497386671602726,
        -0.1568351686000824,
        -0.06988842040300369,
        0.11983203887939453,
        0.05415961146354675,
        0.038422875106334686,
        -0.11297918111085892,
        0.10466940701007843,
        -0.042794208973646164,
        -0.0481400191783905,
        0.09890644997358322,
        0.13468320667743683,
        -0.20586636662483215,
        -0.010705733671784401,
        -0.024015532806515694,
        -0.2409764677286148,
        -0.19936390221118927,
        0.12955312430858612,
        0.22899383306503296,
        0.1361013501882553,
        0.11182813346385956,
        -0.0139566445723176,
        0.20335529744625092,
        0.33464357256889343,
        -0.37059053778648376,
        0.11421027034521103,
        -0.17060986161231995,
        0.03498918190598488,
        -0.09120267629623413,
        -0.0019673693459481,
        -0.36819523572921753,
        -0.2137266993522644,
        0.10542891174554825,
        -0.030319785699248314,
        0.11889622360467911,
        0.3824332356452942,
        0.2985551655292511,
        -0.07347388565540314,
        0.14026670157909393,
        -0.05554571375250816,
        -0.10019315034151077,
        -0.1215290054678917,
        0.13139013946056366,
        -0.11690422147512436,
        0.013036945834755898,
        0.2080996036529541,
        0.6538651585578918,
        0.28273215889930725,
        0.2591612637042999,
        0.20660710334777832,
        -0.25043225288391113,
        -0.275925874710083,
        0.14552822709083557,
        0.1370607614517212,
        0.04376046732068062,
        -0.3048366606235504,
        -0.46841102838516235,
        0.12912337481975555,
        0.12116147577762604,
        -0.1268703192472458,
        0.028530042618513107,
        -0.22947803139686584,
        0.026857594028115273,
        -0.06574651598930359,
        0.29840096831321716,
        -0.27721473574638367,
        -0.2641931176185608,
        0.2520860731601715,
        0.290282279253006,
        -0.05353086069226265,
        0.10127531737089157,
        -0.20745836198329926,
        0.24188745021820068,
        -0.22315989434719086,
        0.1920030266046524,
        -0.135080486536026,
        -0.15435437858104706,
        0.13050635159015656,
        -0.052797991782426834,
        0.07611864805221558,
        -0.32623085379600525,
        -0.15324923396110535,
        -0.05496968328952789,
        -0.18735207617282867,
        -0.22311411798000336,
        -0.1306329071521759,
        -0.3287675380706787,
        -0.33116745948791504,
        0.21542131900787354,
        0.20875334739685059,
        0.1006038635969162,
        0.01705957017838955,
        -0.0765337124466896,
        0.19751307368278503,
        -0.8366752862930298,
        -0.3734404146671295,
        0.09703786671161652,
        -0.39721494913101196,
        -0.5999639630317688,
        0.28151366114616394,
        0.16247205436229706,
        -0.6837929487228394,
        -0.06891898810863495,
        0.10225977003574371,
        0.6781776547431946,
        0.1012834757566452,
        0.7184300422668457,
        0.29133865237236023,
        -0.5326773524284363,
        0.5357334017753601,
        0.17509673535823822,
        0.27236199378967285,
        -0.3467119336128235,
        0.19036409258842468,
        -0.2020280808210373,
        -0.3355065584182739,
        -0.0633963868021965,
        -0.0918540358543396,
        -0.050179801881313324,
        -0.26711544394493103,
        -0.08198875188827515,
        0.054974477738142014,
        -0.049419987946748734,
        0.24202612042427063,
        -0.10614702105522156,
        0.3099270761013031,
        0.18240800499916077,
        -0.06432263553142548,
        0.1493065059185028,
        0.019362585619091988,
        -0.055515993386507034,
        -0.07524989545345306,
        -0.03281232714653015,
        -0.047619517892599106,
        0.02284971810877323,
        -0.2211132049560547,
        -0.052362073212862015,
        -0.1832302212715149,
        -0.1172998696565628,
        0.10165441036224365,
        -0.27119582891464233,
        -0.06302312761545181,
        0.08046674728393555,
        0.10037509351968765,
        0.11746372282505035,
        0.046737201511859894,
        0.13459599018096924,
        -0.20057524740695953,
        0.026940030977129936,
        0.24662695825099945,
        0.16524571180343628,
        -0.07587477564811707,
        -0.19133825600147247,
        0.04348762333393097,
        0.07806730270385742,
        -0.14327247440814972,
        -0.06149882450699806,
        0.05653780326247215,
        -0.08597340434789658,
        -0.22693777084350586,
        -0.25662434101104736,
        0.13666124641895294,
        -0.3706401288509369,
        0.13147658109664917,
        0.10747062414884567,
        -0.20185059309005737,
        -0.18847042322158813,
        -0.2540806233882904,
        0.23894615471363068,
        0.15670335292816162,
        0.05871793255209923,
        0.12705057859420776,
        -0.4915480613708496,
        0.49195393919944763,
        -0.14232735335826874,
        0.09799318015575409,
        -0.07501626014709473,
        -0.12274859100580215,
        -0.0027194484136998653,
        0.05411046743392944,
        0.14290525019168854,
        -0.03180258348584175,
        -0.35465508699417114,
        0.04368036985397339,
        0.1363276243209839,
        -0.004526692442595959,
        0.295570969581604,
        0.25351816415786743,
        -0.28081804513931274,
        0.15082070231437683,
        0.07147333025932312,
        -0.017074570059776306,
        0.22944839298725128,
        -0.11728792637586594,
        -0.03934021294116974,
        0.24752329289913177,
        0.14236290752887726,
        0.2057487666606903,
        0.020115071907639503,
        -0.07328581064939499,
        -0.14383992552757263,
        -0.27409628033638,
        0.019551953300833702,
        0.0741712749004364,
        0.09574918448925018,
        -0.07688602060079575,
        0.15214857459068298,
        -0.09209943562746048,
        0.05948503315448761,
        -0.17063453793525696,
        -0.08012446761131287,
        -0.01964447647333145,
        0.1407444030046463,
        -0.01261691190302372,
        0.0006486763013526797,
        -0.15615160763263702,
        0.006949236150830984,
        -0.015839960426092148,
        -0.01044620480388403,
        0.06492117792367935,
        -0.0012752071488648653,
        0.02630455605685711,
        -0.0015369044849649072,
        -0.22303283214569092,
        -0.04228382185101509,
        0.14099910855293274,
        0.06659526377916336,
        0.09535180777311325,
        -0.061843909323215485,
        -0.04767251014709473,
        -0.034442439675331116,
        -0.1577458530664444,
        -0.04724859446287155,
        -0.06357134878635406,
        -0.07819581031799316,
        -0.11977524310350418,
        0.01419439073652029,
        0.09424754232168198,
        -0.046527065336704254,
        0.0808279886841774,
        -0.16879867017269135,
        -0.16013091802597046,
        0.2266673594713211,
        -0.02327095903456211,
        -0.007911086082458496,
        -0.158104807138443,
        -0.02297206036746502,
        0.09870345890522003,
        -0.14157232642173767,
        -0.0845106914639473,
        0.20053347945213318,
        -0.08860144019126892,
        -0.08272804319858551,
        -0.04763296991586685,
        -0.018402917310595512,
        -0.13735654950141907,
        -0.14746487140655518,
        -0.0474727526307106,
        -0.09421465545892715,
        -0.024819066748023033,
        -0.038708895444869995,
        -0.10970082879066467,
        0.12989619374275208,
        -0.1449650526046753,
        -0.18421465158462524,
        0.034480467438697815,
        -0.06788697093725204,
        0.06451241672039032,
        -0.15551801025867462,
        -0.11498965322971344,
        -0.11095957458019257,
        0.07908202707767487,
        -0.06202845647931099,
        -0.16234317421913147,
        -0.08582407981157303,
        0.1533283293247223,
        -0.09508350491523743,
        -0.01701047644019127,
        0.12552917003631592,
        -0.05905379727482796,
        0.11188104748725891,
        -0.02259157970547676,
        -0.004646198358386755,
        -0.12600253522396088,
        0.13359449803829193,
        -0.0753447487950325,
        -0.17022132873535156,
        -0.03534498065710068,
        0.3182581663131714,
        -0.17829276621341705,
        0.08061421662569046,
        0.22076325118541718,
        -0.16839855909347534,
        0.03895685449242592,
        -0.18450818955898285,
        -0.01599770225584507,
        -0.006327530834823847,
        0.2412206530570984,
        0.01064511388540268,
        0.018210692331194878,
        0.008802974596619606,
        0.03186050429940224,
        -0.006538414396345615,
        -0.0707673653960228,
        -0.08695361763238907,
        0.13866741955280304,
        -0.07494711130857468,
        0.04915705695748329,
        0.05390695482492447,
        0.011872129514813423,
        0.01787944883108139,
        0.0778515413403511,
        -0.0603712797164917,
        -0.12204951047897339,
        -0.012407458387315273,
        0.08687528967857361,
        0.10987319052219391,
        -0.13190288841724396,
        -0.13084188103675842,
        -0.21189835667610168,
        0.13622474670410156,
        0.1753983050584793,
        0.2540115416049957,
        -0.1631920486688614,
        0.055284157395362854,
        -0.02526055835187435,
        0.06960359960794449,
        0.15616914629936218,
        -0.04576346278190613,
        -0.10768596827983856,
        0.10316329449415207,
        -0.040074802935123444,
        0.061445269733667374,
        -0.1076480820775032,
        0.20465399324893951,
        0.08364813774824142,
        0.0897369459271431,
        -0.18782080709934235,
        0.16125038266181946,
        -0.07140643894672394,
        0.11914971470832825,
        0.02662821300327778,
        0.056053560227155685,
        -0.16226623952388763,
        -0.04017512872815132,
        -0.030212096869945526,
        0.26165470480918884,
        -0.31879258155822754,
        -0.043881967663764954,
        -0.2736987769603729,
        0.07298274338245392,
        0.2182643860578537,
        -0.11158080399036407,
        0.08017150312662125,
        0.14784446358680725,
        -0.12981754541397095,
        0.047691527754068375,
        0.04196847230195999,
        -0.033810000866651535,
        0.007323236670345068,
        -0.06272183358669281,
        0.03405121713876724,
        0.02863350138068199,
        -0.11951746046543121,
        0.18370379507541656,
        0.12679779529571533,
        -0.041633184999227524,
        0.04236041381955147,
        -5.878596493857913e-05,
        -0.052263762801885605,
        0.02861684560775757,
        0.1496330350637436,
        0.05246846005320549,
        -0.2231062948703766,
        -0.11914439499378204,
        0.06357337534427643,
        0.02281978353857994,
        -0.10032983869314194,
        -0.05361269414424896,
        0.019953375682234764,
        -0.12111063301563263,
        -0.028406605124473572,
        0.11212825775146484,
        -0.04099920764565468,
        0.013437313959002495,
        0.5558449029922485,
        0.11360990256071091,
        -0.0593179427087307,
        0.10931959003210068,
        0.05666956305503845,
        0.09708233922719955,
        -0.20948487520217896,
        0.1163335070014,
        0.1650383621454239,
        -0.3308356702327728,
        0.09897757321596146,
        0.07778995484113693,
        -0.14010940492153168,
        0.06135430932044983,
        0.10147340595722198,
        0.03140736371278763,
        0.22446618974208832,
        -0.012068170122802258,
        0.0745009258389473,
        -0.08654940128326416,
        0.07112428545951843,
        -0.26569700241088867,
        -0.11548543721437454,
        -0.01912224479019642,
        -0.1764776110649109,
        0.1899782419204712,
        0.018035486340522766,
        0.15139949321746826,
        0.0234087985008955,
        -0.10405319184064865,
        -0.1270456165075302,
        0.2096974402666092,
        0.07938991487026215,
        0.21121351420879364,
        -0.11229690909385681,
        0.03679371252655983,
        0.023234574124217033,
        -0.06638991832733154,
        -0.10871067643165588,
        0.016438577324151993,
        0.008260995149612427,
        -0.0659978911280632,
        -0.14082974195480347,
        -0.22826017439365387,
        -0.2116427719593048,
        0.1840609908103943,
        -0.05037163197994232,
        0.0922757014632225,
        -0.26503509283065796,
        0.13850617408752441,
        -0.034087203443050385,
        0.31273531913757324,
        0.10552458465099335,
        0.18484696745872498,
        0.0017060087993741035,
        -0.0891638919711113,
        -0.14989638328552246,
        0.1290663778781891,
        -0.18376144766807556,
        0.23745296895503998,
        -0.1406617909669876,
        -0.047152549028396606,
        -0.0022465582005679607,
        0.011852181516587734,
        0.050822723656892776,
        -0.09195706993341446,
        -0.3050464987754822,
        0.09075748920440674,
        0.07529333233833313,
        -0.003936911933124065,
        -0.07172317802906036,
        0.050563450902700424,
        -0.0685715302824974,
        -0.16466839611530304,
        0.029001500457525253,
        0.03031153790652752,
        -0.0665784552693367,
        -0.03513505682349205,
        -0.007221478968858719,
        -0.17674727737903595,
        -0.14174789190292358,
        0.030293982475996017,
        0.08666189014911652,
        -0.17538082599639893,
        -0.0004437813186086714,
        0.02681575156748295,
        -0.03439459577202797,
        0.13070990145206451,
        0.12072210758924484,
        -0.05145413801074028,
        0.12771432101726532,
        0.1099284291267395,
        0.239313542842865,
        -0.10430704802274704,
        0.03191421553492546,
        0.0632382407784462,
        -0.17078500986099243,
        -0.13565360009670258,
        0.19363975524902344,
        -0.21542537212371826,
        0.20614278316497803,
        0.02418486215174198,
        0.16122014820575714,
        -0.06345029175281525,
        0.1825743317604065,
        -0.20403748750686646,
        0.14638160169124603,
        -0.06637882441282272,
        0.07210210710763931,
        0.03046831302344799,
        0.040956225246191025,
        -0.06218906491994858,
        0.09932269901037216,
        -0.03879351168870926,
        0.18451479077339172,
        0.0367460697889328,
        -0.12084268778562546,
        -0.1271129995584488,
        0.14148369431495667,
        -0.1565193086862564,
        0.08317136764526367,
        -0.13388948142528534,
        0.050852637737989426,
        -0.004629051778465509,
        0.10664092749357224,
        -0.1665966510772705,
        0.17234687507152557,
        0.08988741040229797,
        0.10079924762248993,
        0.046394698321819305,
        -0.16797319054603577,
        0.08588410913944244,
        -0.07187569886445999,
        0.1178726851940155,
        0.23245465755462646,
        0.027115244418382645,
        -0.006906910799443722,
        -0.10417193174362183,
        0.07776683568954468,
        0.09346472471952438,
        0.05561423301696777,
        0.07250002771615982,
        0.08467108756303787,
        0.5809124708175659,
        -0.14834260940551758,
        0.2533877193927765,
        -0.0392339751124382,
        0.04713927209377289,
        -0.049103736877441406,
        0.09339501708745956,
        -0.14985774457454681,
        -0.152937650680542,
        0.11678674072027206,
        -0.06398802995681763,
        -0.14197424054145813,
        0.19194567203521729,
        -0.08928338438272476,
        0.038061805069446564,
        0.1068427786231041,
        0.039886146783828735,
        -0.005201591644436121,
        0.18307814002037048,
        0.14106863737106323,
        0.17769229412078857,
        0.09180145710706711,
        0.0035837728064507246,
        -0.18586017191410065,
        0.012979880906641483,
        -0.034271787852048874,
        -0.06647632271051407,
        -0.04787427559494972,
        0.056241538375616074,
        0.010747052729129791,
        -0.01724167913198471,
        -0.06937551498413086,
        0.079440176486969,
        0.03989849612116814,
        0.024942072108387947,
        -0.0524444505572319,
        -0.17139887809753418,
        -0.03760078549385071,
        0.05878100171685219,
        -0.1291293352842331,
        -0.13385726511478424,
        -0.11563631892204285,
        -0.03866660222411156,
        -0.19370320439338684,
        -0.24064652621746063,
        0.1439046412706375,
        -0.0458420030772686,
        -0.036316879093647,
        -0.028586728498339653,
        -0.009910578839480877,
        0.06165254861116409,
        0.041800882667303085,
        0.029238261282444,
        -0.004853168036788702,
        -0.01735486462712288,
        -0.11835646629333496,
        0.12630756199359894,
        0.02804477885365486,
        0.1781987100839615,
        0.017896246165037155,
        0.07459619641304016,
        -0.12868869304656982,
        -0.022728856652975082,
        -0.06421465426683426,
        -0.09574732929468155,
        0.03397790342569351,
        -0.11912128329277039,
        -0.10324884206056595,
        -0.08657742291688919,
        -0.2127819061279297,
        0.031555864959955215,
        -0.17083369195461273,
        -0.009561866521835327,
        0.06877605617046356,
        0.11039800941944122,
        -0.08924664556980133,
        -0.06191374361515045,
        -0.012246296741068363,
        0.23126812279224396,
        -0.12958572804927826,
        0.07660898566246033,
        -0.20532123744487762,
        -0.020301012322306633,
        -0.18621842563152313,
        0.20824359357357025,
        0.20080870389938354,
        0.24112220108509064,
        0.055745434015989304,
        0.006439343560487032,
        -0.09216834604740143,
        0.051878172904253006,
        -0.10829214751720428,
        -0.022271156311035156,
        -0.13611683249473572,
        0.10940521955490112,
        -0.09727136045694351,
        0.18063277006149292,
        -0.33168748021125793,
        0.11562882363796234,
        -0.23555123805999756,
        -0.01478844229131937,
        -0.0809594914317131,
        0.030654579401016235,
        0.002345293527469039,
        0.18767251074314117,
        -0.21047595143318176,
        0.4138602614402771,
        -0.3824966549873352,
        0.09525945782661438,
        0.010880929417908192,
        0.023114215582609177,
        0.02313646674156189,
        0.11932815611362457,
        0.19399507343769073,
        0.14416871964931488,
        0.18570217490196228,
        0.23636791110038757,
        0.05063880607485771,
        0.11413444578647614,
        -0.08683907240629196,
        -0.02088564820587635,
        0.11401263624429703,
        -0.01184869185090065,
        -0.06083676218986511,
        -0.17296835780143738,
        -0.1589658409357071,
        0.15540571510791779,
        0.21100422739982605,
        -0.2065194994211197,
        -0.16404733061790466,
        -0.0659402385354042,
        0.17449180781841278,
        -0.26032981276512146,
        0.08558034896850586,
        -0.004130223300307989,
        -0.12239822000265121,
        0.15543051064014435,
        -0.013228337280452251,
        0.06547146290540695,
        0.10086634755134583,
        0.04286912828683853,
        0.09195063263177872,
        -0.17618660628795624,
        0.06366089731454849,
        -0.09245047718286514,
        0.04338501766324043,
        -0.019289322197437286,
        0.03385848551988602,
        -0.16288110613822937,
        0.20139098167419434,
        -0.16079680621623993,
        0.21360057592391968,
        0.02572525292634964,
        -0.11264336109161377,
        -0.397763192653656,
        0.311991810798645,
        -0.23792564868927002,
        0.13525418937206268,
        0.14557424187660217,
        -0.10826200246810913,
        0.006104928907006979,
        0.03152656555175781,
        -0.20008108019828796,
        0.07151211053133011,
        -0.11780150234699249,
        -0.17537839710712433,
        0.0875990241765976,
        0.12400852143764496,
        -0.1337890326976776,
        -0.09412942826747894,
        0.12218044698238373,
        0.024238895624876022,
        -0.12184660136699677,
        -0.12860353291034698,
        -0.2758175730705261,
        0.12043678015470505,
        0.008733329363167286,
        0.021517857909202576,
        0.009483936242759228,
        -0.21901394426822662,
        0.09346029907464981,
        -0.062134746462106705,
        0.033836480230093,
        -0.011755566112697124,
        -0.04597102478146553,
        -0.009815867990255356,
        0.03224542364478111,
        -0.012995583936572075,
        -0.06375160813331604,
        -0.0818251371383667,
        0.1350671499967575,
        0.06394064426422119,
        0.048518627882003784,
        0.0815836638212204,
        0.10938136279582977,
        -0.15451037883758545,
        0.17048941552639008,
        0.12260523438453674,
        0.07746461033821106,
        -0.08962445706129074,
        0.06241219863295555,
        0.02363581582903862,
        -0.13006143271923065,
        -0.1155613511800766,
        0.24376416206359863,
        -0.08916199952363968,
        -0.12934793531894684,
        0.20456746220588684,
        -0.03407537564635277,
        -0.15524062514305115,
        0.11789895594120026,
        -0.055289506912231445,
        -0.008274980820715427,
        0.0972234383225441,
        -0.13538967072963715,
        -0.02820076234638691,
        0.13098552823066711,
        -0.00805926974862814,
        -0.0900653675198555,
        -0.09491018205881119,
        -0.07449909299612045,
        0.07982619106769562,
        -0.24534091353416443,
        -0.09816868603229523,
        0.23287059366703033,
        0.19868339598178864,
        0.026571301743388176,
        -0.3682636320590973,
        0.10294687002897263,
        0.07248609513044357,
        -0.0030706266406923532,
        0.22831426560878754,
        0.059562452137470245,
        -0.030991429463028908,
        0.047349005937576294,
        -0.08288498967885971,
        -0.09362263977527618,
        -0.21072900295257568,
        0.24010148644447327,
        0.10284106433391571,
        0.03834610804915428,
        -0.30426156520843506,
        0.06334453821182251,
        -0.0010056779719889164,
        0.3091585040092468,
        0.08158459514379501,
        0.2938140332698822,
        -0.21510061621665955,
        -0.2490275502204895,
        0.005620394833385944,
        0.3380630910396576,
        -0.3530043661594391,
        0.15141640603542328,
        -0.05548316240310669,
        -0.17528945207595825,
        0.1653638780117035,
        0.026465263217687607,
        -0.08236882835626602,
        0.06268451362848282,
        -0.18840429186820984,
        0.031918201595544815,
        0.2745960056781769,
        -0.010658033192157745,
        -0.21099065244197845,
        0.2640668451786041,
        0.02064969763159752,
        -0.2803400158882141,
        -0.2219204157590866,
        0.11207680404186249,
        0.22871780395507812,
        -0.11240392923355103,
        0.13436530530452728,
        -0.042866505682468414,
        0.12565799057483673,
        -0.0044838921166956425,
        -0.11486691981554031,
        0.14576905965805054,
        0.16170036792755127,
        -0.08482465893030167,
        0.030249273404479027,
        0.07933315634727478,
        -0.040976472198963165,
        0.20004978775978088,
        -0.06175724416971207,
        -0.0440991148352623,
        -0.08967195451259613,
        -0.19530943036079407,
        0.15431120991706848,
        -0.008595838211476803,
        -0.171781986951828,
        -0.09738253802061081,
        -0.1826205849647522,
        -0.19745567440986633,
        0.10859769582748413,
        -0.05618123710155487,
        0.10708516836166382,
        0.04587068781256676,
        -0.027462944388389587,
        -0.05461032688617706,
        -0.17934903502464294,
        0.12798655033111572,
        0.21545271575450897,
        -7.79442473231029e-07,
        0.12467695027589798,
        -0.10866500437259674,
        -0.05572021007537842,
        0.12325028330087662,
        0.0053525338880717754,
        0.08038969337940216,
        0.03946356102824211,
        -0.020314576104283333,
        -0.09570818394422531,
        0.16864027082920074,
        -0.028583521023392677,
        -0.019249150529503822,
        0.012741021811962128,
        0.0887439101934433,
        0.10028665512800217,
        -0.0107443667948246,
        0.004640431143343449,
        -0.07988519221544266,
        -0.01959439553320408,
        0.05445379391312599,
        0.1428268551826477,
        -0.022508220747113228,
        -0.11324745416641235,
        0.10127338021993637,
        -0.08213987946510315,
        0.02691149339079857,
        0.07931767404079437,
        -0.006335568614304066,
        0.17480838298797607,
        0.22943846881389618,
        0.07106223702430725,
        -0.0018254719907417893,
        -0.09560447186231613,
        -0.028961969539523125,
        0.2196042239665985,
        -0.1163875088095665,
        0.2352602183818817,
        -0.0454474538564682,
        0.011544980108737946,
        -0.0931960791349411,
        -0.053108830004930496,
        0.1257406622171402,
        0.09758614003658295,
        -0.293012410402298,
        0.3222894072532654,
        -0.15993721783161163,
        0.021169237792491913,
        -0.044806890189647675,
        -0.17539075016975403,
        0.03812871500849724,
        -0.012778603471815586,
        -0.24012427031993866,
        0.017438596114516258,
        -0.039932943880558014,
        0.007687308359891176,
        0.06990474462509155,
        -0.053284451365470886,
        -0.13843275606632233,
        -0.11466018110513687,
        -0.08607622236013412,
        0.05434161797165871,
        -0.07165063172578812,
        0.055846720933914185,
        -0.08736947923898697,
        0.19516390562057495,
        -0.366206556558609,
        -0.08244588226079941,
        -0.07955306768417358,
        0.08407744765281677,
        -0.10233762115240097,
        0.17950022220611572,
        0.0623294934630394,
        -0.0862780287861824,
        -0.004777251742780209,
        0.04206385090947151,
        0.006593544036149979,
        0.2590891420841217,
        0.17862415313720703,
        0.23288001120090485,
        -0.19989950954914093,
        -0.03453235328197479,
        -0.03478231281042099,
        0.22293303906917572,
        -0.0055524068884551525,
        0.10355015099048615,
        -0.24024227261543274,
        -0.0312199629843235,
        -0.015256527811288834,
        -0.05792016535997391,
        -0.00786047987639904,
        -0.06118015944957733,
        -0.49734342098236084,
        0.33581313490867615,
        -0.10283179581165314,
        0.18850934505462646,
        0.11947556585073471,
        -0.06438158452510834,
        0.07334065437316895,
        -0.030961882323026657,
        -0.009896300733089447,
        0.19971083104610443,
        0.041986674070358276,
        -0.0715915635228157,
        -0.012348453514277935,
        0.07526970654726028,
        -0.18225349485874176,
        -0.020225290209054947,
        -0.07038535177707672,
        0.13538217544555664,
        -0.11900260299444199,
        -0.06335378438234329,
        -0.12370933592319489,
        0.17796684801578522,
        -0.14641621708869934,
        0.06721954047679901,
        0.003399956040084362,
        0.04941435158252716,
        -0.01807943731546402,
        0.09793180227279663,
        0.05959067866206169,
        0.1053406149148941,
        0.1914970874786377,
        -0.005188907962292433,
        -0.0663970410823822,
        0.04402747005224228,
        0.07794852554798126,
        0.0478055439889431,
        -0.204533189535141,
        0.015850968658924103,
        -0.03292606770992279,
        -0.067964568734169,
        -0.21963730454444885,
        0.15859434008598328,
        -0.28791940212249756,
        -0.061734896153211594,
        -0.15742523968219757,
        -0.013617955148220062,
        -0.02771575190126896,
        0.0011099153198301792,
        0.06543660163879395,
        0.18699614703655243,
        -0.0838199183344841,
        0.14023344218730927,
        -0.12344085425138474,
        -0.10137354582548141,
        0.060140062123537064,
        0.045773882418870926,
        -0.13705003261566162,
        -0.0358203649520874,
        0.04127288609743118,
        0.019591759890317917,
        0.111198291182518,
        -0.08339951187372208,
        0.03164811059832573,
        -0.06241355091333389,
        0.016891449689865112,
        0.09001319110393524,
        0.14368781447410583,
        0.23074661195278168,
        0.13482150435447693,
        0.03762608394026756,
        -0.012120824307203293,
        0.07298258692026138,
        -0.0563516691327095,
        0.07538749277591705,
        0.10569106787443161,
        0.135744109749794,
        0.0035628145560622215,
        -0.005377310328185558,
        -0.006591474637389183,
        0.030571889132261276,
        0.12362277507781982,
        0.011007995344698429,
        0.08582031726837158,
        -0.1163289025425911,
        -0.30337053537368774,
        0.33501896262168884,
        0.17275500297546387,
        -0.548599898815155,
        0.09900131076574326,
        -0.7213318943977356,
        -0.36085084080696106,
        -0.29317712783813477,
        0.6127068996429443,
        -0.7864227294921875,
        -0.6010468006134033,
        -0.9710723757743835,
        0.21132278442382812,
        -0.7314088940620422,
        0.4048987627029419,
        -0.6563904881477356,
        -0.06999766081571579,
        -0.06179109960794449,
        -0.08928316831588745,
        0.031295377761125565,
        0.08318166434764862,
        0.10373739153146744,
        -0.38276636600494385,
        -0.052934128791093826,
        0.08367665112018585,
        0.13141991198062897,
        -0.21282552182674408,
        -0.16412511467933655,
        0.09233982861042023,
        0.17928090691566467,
        0.10254140198230743,
        0.07477737963199615,
        0.14526274800300598,
        -0.14845135807991028,
        0.060369644314050674,
        0.04005385935306549,
        -0.1577330082654953,
        0.16118605434894562,
        -0.014411152340471745,
        -0.08964026719331741,
        0.1954219788312912,
        -0.12721361219882965,
        0.11045678704977036,
        0.22593876719474792,
        -0.04165685921907425,
        0.019113438203930855,
        -0.006921661552041769,
        0.09466619789600372,
        -0.04141797125339508,
        -0.22484691441059113,
        -0.14134220778942108,
        0.06195142865180969,
        -0.12583617866039276,
        0.2972720265388489,
        -0.10780218243598938,
        0.04761585220694542,
        -0.024559032171964645,
        0.24201606214046478,
        -0.21833735704421997,
        -0.31613048911094666,
        0.03301974758505821,
        0.1975887268781662,
        0.24350082874298096,
        0.052793748676776886,
        -0.04842117428779602,
        0.05783703923225403,
        -0.17745341360569,
        -0.19070005416870117,
        -0.16762903332710266,
        0.06249300763010979,
        0.05893539637327194,
        -0.16700021922588348,
        0.01369649637490511,
        0.008890233933925629,
        0.035638079047203064,
        0.3333375155925751,
        0.3113729953765869,
        -0.0674157366156578,
        0.12522490322589874,
        0.09188078343868256,
        0.24009743332862854,
        -0.0153009919449687,
        -0.050500184297561646,
        -0.09638313204050064,
        0.27223512530326843,
        -0.10991203784942627,
        0.0033155987039208412,
        0.23427017033100128,
        0.33342984318733215,
        -0.14283239841461182,
        -0.153726264834404,
        0.3218749761581421,
        -0.06516686081886292,
        -0.1989046186208725,
        -0.22137054800987244,
        -0.15304554998874664,
        -0.1331612914800644,
        -0.08648522198200226,
        -0.3331491947174072,
        -0.16812393069267273,
        -0.021358836442232132,
        -0.14402760565280914,
        -0.03133384883403778,
        -0.09446654468774796,
        0.1765127331018448,
        0.27532994747161865,
        -0.03721395507454872,
        -0.1703835129737854,
        -0.09136954694986343,
        -0.048753853887319565,
        0.10065867751836777,
        0.13735337555408478,
        -0.018366338685154915,
        0.04501046612858772,
        0.17498472332954407,
        -0.32933181524276733,
        0.06542649120092392,
        0.20078636705875397,
        -0.15440762042999268,
        -0.28121915459632874,
        0.22649484872817993,
        -0.05127276852726936,
        -0.04135594144463539,
        0.36534860730171204,
        0.1935306191444397,
        -0.04043974354863167,
        -0.2326362580060959,
        0.2973410487174988,
        0.10219679027795792,
        0.19792558252811432,
        -0.03486020863056183,
        0.1649368554353714,
        0.0646452084183693,
        -0.07286573201417923,
        -0.07104677706956863,
        0.0619470439851284,
        -0.08524931222200394,
        0.2835130989551544,
        -0.12938648462295532,
        -0.1664678454399109,
        -0.18222713470458984,
        0.12330493330955505,
        0.2139861136674881,
        0.04258638992905617,
        -0.03759447857737541,
        0.09121581166982651,
        -0.17253637313842773,
        -0.2526220679283142,
        -0.20236003398895264,
        -0.12221544235944748,
        -0.05321868881583214,
        -0.11257641762495041,
        0.029017576947808266,
        0.09958851337432861,
        0.14031143486499786,
        -0.07746967673301697,
        -0.08092280477285385,
        0.15566381812095642,
        -0.06962136179208755,
        0.2567717134952545,
        -0.35707971453666687,
        -0.12326353043317795,
        0.14517927169799805,
        0.18316328525543213,
        0.3245570659637451,
        -0.3562467694282532,
        0.5289859175682068,
        -0.21557874977588654,
        -0.053352247923612595,
        -0.3160861134529114,
        0.4919978380203247,
        0.7591217160224915,
        0.3749859631061554,
        -0.18061015009880066,
        0.0396638922393322,
        -0.22970673441886902,
        -0.16424377262592316,
        -0.007767835631966591,
        -0.13924799859523773,
        -0.0838797390460968,
        0.03875714913010597,
        -0.04165321961045265,
        -0.013322727754712105,
        -0.07610087096691132,
        0.14095258712768555,
        0.2641965448856354,
        -0.11447733640670776,
        0.14201615750789642,
        0.13186517357826233,
        0.04304926469922066,
        -0.07055239379405975,
        0.13676443696022034,
        0.02606596238911152,
        0.14949172735214233,
        -0.3166961371898651,
        -0.23602581024169922,
        -0.2783501148223877,
        0.010438152588903904,
        0.06636327505111694,
        0.0627494677901268,
        0.009218028746545315,
        0.35265442728996277,
        0.19579048454761505,
        -0.2509991228580475,
        0.1464858502149582,
        -0.08247596025466919,
        0.2307230532169342,
        -0.03479047864675522,
        -0.16103844344615936,
        -0.21076464653015137,
        -0.2843340337276459,
        -0.08437817543745041,
        -0.11088121682405472,
        -0.05959188565611839,
        -0.18082797527313232,
        0.023010792210698128,
        -0.14696216583251953,
        0.04649656265974045,
        -0.14512018859386444,
        -0.1930762380361557,
        0.2591556906700134,
        -0.09889490157365799,
        0.05029644817113876,
        0.06851435452699661,
        0.10115213692188263,
        -0.0027703421656042337,
        -0.2164740413427353,
        0.08164940029382706,
        -0.2875748574733734,
        0.057826120406389236,
        -0.029341094195842743,
        -0.029732953757047653,
        0.11360302567481995,
        0.28483206033706665,
        0.07870104908943176,
        -0.06803940236568451,
        0.1933501660823822,
        0.16937202215194702,
        0.110283263027668,
        -0.05889385938644409,
        0.1365301012992859,
        0.08839258551597595,
        0.0065855165012180805,
        -0.14766226708889008,
        -0.2065599411725998,
        -0.054032523185014725,
        0.0053728120401501656,
        0.017875125631690025,
        -0.005878145806491375,
        0.18592789769172668,
        -0.24075327813625336,
        -0.20607881247997284,
        -0.12168839573860168,
        0.10143261402845383,
        0.21156571805477142,
        0.13612794876098633,
        0.20496894419193268,
        -0.3654087781906128,
        -0.2043691724538803,
        0.2161443829536438,
        -0.246632918715477,
        0.09909279644489288,
        -0.25141245126724243,
        0.11956712603569031,
        0.15293987095355988,
        -0.09446048736572266,
        0.17117780447006226,
        -0.24897155165672302,
        -0.2548203766345978,
        0.32371774315834045,
        -0.0374259427189827,
        -0.27589911222457886,
        -0.07249096035957336,
        -0.07248636335134506,
        -0.03198441490530968,
        -0.14512072503566742,
        -0.12137963622808456,
        0.0524749718606472,
        0.10325464606285095,
        0.19906875491142273,
        0.012375975027680397,
        -0.041690029203891754,
        -0.04650275781750679,
        -0.2064870446920395,
        0.012911178171634674,
        -0.2789424657821655,
        -0.1527036428451538,
        -0.03892119601368904,
        0.03047906793653965,
        -0.0018564894562587142,
        0.011883766390383244,
        0.10862600803375244,
        -0.15783539414405823,
        -0.13622000813484192,
        0.19548046588897705,
        -0.020332790911197662,
        -0.03238491341471672,
        0.21945437788963318,
        -0.059787318110466,
        -0.09240631759166718,
        0.08283213526010513,
        0.1640809178352356,
        -0.1060071736574173,
        0.1439984142780304,
        -0.013486557640135288,
        0.3825407326221466,
        -0.024851998314261436,
        0.054187409579753876,
        0.00921551138162613,
        -0.08836021274328232,
        0.04662012308835983,
        0.009865672327578068,
        0.016852926462888718,
        0.0950983464717865,
        -0.0641510933637619,
        -0.06705112755298615,
        0.04005739465355873,
        -0.1874251663684845,
        0.039176929742097855,
        0.05387356877326965,
        -0.11208734661340714,
        0.10006962716579437,
        -0.08604718744754791,
        0.04669446870684624,
        0.1182708591222763,
        -0.0642021894454956,
        0.006910854484885931,
        0.0578383170068264,
        0.09564758092164993,
        -0.12797632813453674,
        0.21676959097385406,
        -0.05165467783808708,
        -0.1302945762872696,
        0.1447775661945343,
        -0.12231075018644333,
        0.0158336590975523,
        -0.15908542275428772,
        -0.131339430809021,
        0.12891101837158203,
        -0.06799574196338654,
        0.0737108364701271,
        -0.2632575035095215,
        0.13104674220085144,
        0.1273806095123291,
        0.09620803594589233,
        0.02240004390478134,
        -0.0873192846775055,
        -0.1633210927248001,
        0.17860953509807587,
        0.015068842098116875,
        -0.1299179345369339,
        -0.1715063452720642,
        -0.08895625174045563,
        0.14191140234470367,
        0.1858656257390976,
        -0.05257344990968704,
        0.07863616943359375,
        -0.11842261254787445,
        -0.08152060955762863,
        0.10839606821537018,
        0.0648026168346405,
        -0.021064531058073044,
        -0.22583119571208954,
        0.3264758586883545,
        0.0060052755288779736,
        -0.15738704800605774,
        0.18612536787986755,
        0.07909058034420013,
        -0.08242803812026978,
        -0.05173572152853012,
        -0.08042623102664948,
        -0.10046877712011337,
        -0.05072235316038132,
        0.12188246101140976,
        -0.08495485782623291,
        -0.01448921300470829,
        0.017365964129567146,
        -0.18900622427463531,
        -0.024444865062832832,
        0.1605481505393982,
        0.07016841322183609,
        0.04634416848421097,
        -0.0011344748781993985,
        0.2043876200914383,
        0.0395083911716938,
        0.006351009011268616,
        0.017843952402472496,
        0.08696850389242172,
        -0.017160635441541672,
        -0.11704757064580917,
        0.18914338946342468,
        0.2521313726902008,
        0.027493569999933243,
        -0.12255527079105377,
        0.06084613502025604,
        0.05260568484663963,
        -0.1422950029373169,
        -0.5333447456359863,
        0.21497419476509094,
        0.046816062182188034,
        0.2623350918292999,
        -0.04051686078310013,
        0.026775654405355453,
        0.06451274454593658,
        -0.00880833063274622,
        -0.04881450906395912,
        0.1472470909357071,
        0.0538669191300869,
        0.075086310505867,
        0.03197561576962471,
        -0.05633193626999855,
        -0.005611208733171225,
        -0.05684935301542282,
        -0.07450129091739655,
        -0.11463762074708939,
        0.13250935077667236,
        -0.1146593764424324,
        -0.00409700209274888,
        0.3020201623439789,
        -0.04972086474299431,
        0.04693565145134926,
        0.17739973962306976,
        -0.11064822971820831,
        0.014532073400914669,
        0.14791420102119446,
        -0.03434138372540474,
        0.13150814175605774,
        0.11147496104240417,
        -0.08724190294742584,
        -0.021852882578969002,
        0.04939054325222969,
        0.1724470853805542,
        -0.21878299117088318,
        -0.14214210212230682,
        0.22496813535690308,
        -0.06696220487356186,
        0.09145215153694153,
        -0.09238839894533157,
        0.10899373888969421,
        0.18939079344272614,
        -0.15662673115730286,
        0.1755310744047165,
        0.055517975240945816,
        -0.1748630255460739,
        0.03799661621451378,
        -0.015134639106690884,
        -0.04572955146431923,
        -0.20216487348079681,
        -0.13566136360168457,
        0.13041123747825623,
        0.20240236818790436,
        0.05204454064369202,
        -0.1616082638502121,
        -0.08084769546985626,
        0.001342191593721509,
        0.16548654437065125,
        0.07880564033985138,
        0.07460246235132217,
        -0.029507968574762344,
        0.11471433192491531,
        -0.2675367295742035,
        -0.39001113176345825,
        0.08674238622188568,
        0.10553157329559326,
        -0.05178969353437424,
        0.14823423326015472,
        -0.021283302456140518,
        -0.16353236138820648,
        0.04625740647315979,
        0.017047861590981483,
        -0.037630122154951096,
        0.1736438125371933,
        0.036957114934921265,
        0.04473591595888138,
        0.06122898682951927,
        0.007411031983792782,
        0.043790049850940704,
        -0.18356864154338837,
        -0.02378610335290432,
        0.15073522925376892,
        0.14197759330272675,
        -0.025342950597405434,
        -0.1427937000989914,
        -0.04728032276034355,
        0.02331528253853321,
        0.12147199362516403,
        0.04751663655042648,
        -0.11268134415149689,
        0.03529657423496246,
        -0.03458554670214653,
        0.06573203951120377,
        -0.012992585077881813,
        -0.1584508717060089,
        0.34185293316841125,
        0.040656883269548416,
        0.05863620713353157,
        -0.027912087738513947,
        0.022420130670070648,
        -0.24396219849586487,
        -0.11859933286905289,
        0.16547250747680664,
        -0.01111974474042654,
        -0.08892161399126053,
        0.0003393305523786694,
        -0.0006269555306062102,
        -0.22052350640296936,
        0.20026284456253052,
        -0.041176628321409225,
        0.16617129743099213,
        0.1034792810678482,
        -0.08932622522115707,
        -0.1458471715450287,
        0.14041703939437866,
        -0.04811546206474304,
        -0.2124335616827011,
        -0.013492422178387642,
        -0.03861161321401596,
        -0.0506918765604496,
        0.11250250786542892,
        -0.08380990475416183,
        -0.25129833817481995,
        0.20936442911624908,
        -0.05109024792909622,
        -0.4065931439399719,
        0.21661320328712463,
        0.1451754868030548,
        -0.062711700797081,
        -0.18083012104034424,
        0.02583329565823078,
        -0.015055014751851559,
        0.1301177591085434,
        0.23936375975608826,
        0.03878441080451012,
        -0.1692696213722229,
        0.07437417656183243,
        -0.08631075918674469,
        -0.23630444705486298,
        0.17433902621269226,
        -0.053564995527267456,
        -0.046692319214344025,
        0.05142449960112572,
        0.13173659145832062,
        0.12010608613491058,
        -0.23442837595939636,
        -0.186379075050354,
        0.21851962804794312,
        0.01459631510078907,
        0.15273140370845795,
        -0.08819082379341125,
        -0.2685855031013489,
        -0.19413255155086517,
        0.23160704970359802,
        0.20267707109451294,
        0.0018657908076420426,
        -0.28868862986564636,
        0.07197299599647522,
        0.06838113814592361,
        -0.18643853068351746,
        0.2059497833251953,
        0.09473633021116257,
        -0.15553560853004456,
        0.19524841010570526,
        0.07416152954101562,
        -0.09711425006389618,
        0.2036617249250412,
        -0.050634030252695084,
        -0.17802247405052185,
        0.12329072505235672,
        0.0894719809293747,
        -0.12034587562084198,
        0.1602746844291687,
        -0.02682586945593357,
        -0.23568761348724365,
        0.015717653557658195,
        -0.12769266963005066,
        0.12988053262233734,
        -0.023703323677182198,
        -0.08929486572742462,
        -0.13311965763568878,
        0.02512739971280098,
        -0.006155307870358229,
        0.0733611136674881,
        0.05622515827417374,
        -0.11177267879247665,
        -0.10406214743852615,
        -0.09091349691152573,
        0.130606010556221,
        0.07603804022073746,
        0.01238885335624218,
        -0.038417402654886246,
        0.03309888392686844,
        0.070840023458004,
        0.17618311941623688,
        0.08503556251525879,
        0.028140727430582047,
        0.06541326642036438,
        -0.01564989611506462,
        0.15337181091308594,
        0.0754830613732338,
        -0.14695139229297638,
        -0.19013820588588715,
        -0.03857259079813957,
        0.144452765583992,
        -0.1910596787929535,
        0.1945330649614334,
        0.18226246535778046,
        -0.19948065280914307,
        0.017998410388827324,
        -0.07292555272579193,
        -0.06628648191690445,
        -0.05475633591413498,
        0.012636784464120865,
        -0.11731083691120148,
        -0.13415519893169403,
        0.0848415344953537,
        -0.01291850209236145,
        -0.10734543949365616,
        0.05082137882709503,
        -0.21416175365447998,
        -0.005922313779592514,
        0.09714045375585556,
        0.20063039660453796,
        -0.109892837703228,
        -0.18945682048797607,
        -0.016093052923679352,
        0.08682169020175934,
        0.11311076581478119,
        0.14331252872943878,
        0.12212495505809784,
        -0.11273176968097687,
        0.06929200142621994,
        0.21351417899131775,
        -0.16446484625339508,
        0.039243172854185104,
        0.06525631248950958,
        -0.07260485738515854,
        -0.259399950504303,
        0.09362876415252686,
        -0.032076265662908554,
        -0.10688547044992447,
        0.06811299175024033,
        0.19379009306430817,
        -0.0027683652006089687,
        0.09488281607627869,
        -0.03661138564348221,
        -0.23144295811653137,
        -0.010774572379887104,
        0.10519513487815857,
        0.09942759573459625,
        0.12269189208745956,
        -0.25308680534362793,
        -0.13242195546627045,
        -0.020468594506382942,
        -0.3741602599620819,
        0.25389164686203003,
        -0.013061495497822762,
        -0.1350322961807251,
        0.12639008462429047,
        0.07246889173984528,
        -0.2910616993904114,
        0.12743136286735535,
        0.13828375935554504,
        0.027065716683864594,
        0.011079156771302223,
        0.01092606782913208,
        -0.12715204060077667,
        0.1508115530014038,
        0.06332917511463165,
        -0.2163487672805786,
        -0.16682913899421692,
        -0.16818445920944214,
        0.11485826969146729,
        -0.007769371382892132,
        -0.060000237077474594,
        -0.1960010677576065,
        -0.02122020162642002,
        -0.15951751172542572,
        0.1715233474969864,
        -0.11136674880981445,
        -0.05626780167222023,
        0.03599986433982849,
        -0.1400693953037262,
        0.053019341081380844,
        0.23096676170825958,
        -0.18571949005126953,
        -0.2561219334602356,
        -0.02223573997616768,
        0.14357587695121765,
        0.0212940014898777,
        -0.2578520178794861,
        -0.03491447493433952,
        -0.1519833654165268,
        0.07880833745002747,
        0.2050449699163437,
        0.00818129163235426,
        -0.11226189136505127,
        -0.029249226674437523,
        -0.16582828760147095,
        0.18525803089141846,
        -0.21453583240509033,
        0.14934596419334412,
        0.25520357489585876,
        -0.11706523597240448,
        -0.14131221175193787,
        -0.007185535505414009,
        -0.07925529032945633,
        -0.05327478423714638,
        0.05528562515974045,
        -0.20575667917728424,
        0.0297577865421772,
        0.10613344609737396,
        -0.08209116756916046,
        -0.1718304455280304,
        0.2439984679222107,
        0.04079579561948776,
        -0.060247067362070084,
        0.07899466902017593,
        0.2242092341184616,
        0.14759023487567902,
        -0.15492676198482513,
        -0.22744625806808472,
        0.05295405164361,
        -0.08559707552194595,
        0.16070342063903809,
        0.1173081025481224,
        -0.045864298939704895,
        0.10405556112527847,
        0.018670981749892235,
        0.060418710112571716,
        0.037669453769922256,
        0.0304437056183815,
        -0.09128829836845398,
        -0.06360631436109543,
        0.06426902860403061,
        0.08805246651172638,
        -0.24536408483982086,
        -0.12391930818557739,
        0.16295938193798065,
        -0.1915641874074936,
        -0.08927036821842194,
        -0.30870580673217773,
        -0.06016257032752037,
        -0.20863454043865204,
        -0.0005786095280200243,
        0.02276906743645668,
        -0.15727712213993073,
        0.00974082387983799,
        0.2694556415081024,
        -0.05231422930955887,
        0.05361640080809593,
        0.09237828105688095,
        0.028070081025362015,
        -0.11278953403234482,
        0.025500722229480743,
        0.1493690013885498,
        -0.07903977483510971,
        0.10578250139951706,
        0.024229664355516434,
        -0.08557199686765671,
        -0.029072219505906105,
        -0.1177436038851738,
        -0.04919876903295517,
        0.047479238361120224,
        0.06453371047973633,
        -0.13431400060653687,
        -0.007560176309198141,
        0.018109723925590515,
        -0.06688311696052551,
        -0.11236198246479034,
        -0.13716639578342438,
        0.21238552033901215,
        0.06332167983055115,
        0.1404595673084259,
        -0.022611169144511223,
        0.1057945042848587,
        0.17020824551582336,
        -0.08580570667982101,
        0.16678154468536377,
        0.16821913421154022,
        -0.04712234064936638,
        0.20908445119857788,
        -0.036031585186719894,
        0.07477903366088867,
        -0.08370395004749298,
        -0.017753852531313896,
        0.15112045407295227,
        0.1938200294971466,
        0.23088796436786652,
        -0.20727838575839996,
        -0.02693287655711174,
        0.049249157309532166,
        0.17220468819141388,
        0.06302355229854584,
        0.18394045531749725,
        -0.16846896708011627,
        0.09016687422990799,
        0.0028466673102229834,
        -0.017136599868535995,
        0.12680281698703766,
        0.08497545123100281,
        -0.13565102219581604,
        0.19901488721370697,
        0.0797952264547348,
        -0.07931698858737946,
        0.11911621689796448,
        0.10022935271263123,
        -0.1638280749320984,
        0.17988793551921844,
        -0.025720592588186264,
        -0.2772466540336609,
        0.03289337828755379,
        0.30916711688041687,
        -0.30321475863456726,
        -0.019827328622341156,
        -0.20044399797916412,
        0.1514749526977539,
        0.17842501401901245,
        -0.018627425655722618,
        -0.0772806704044342,
        -0.09372936934232712,
        -0.1203162670135498,
        0.20296649634838104,
        -0.03306783735752106,
        -0.028987936675548553,
        0.29804980754852295,
        -0.2285422831773758,
        0.020369108766317368,
        0.21149665117263794,
        0.02510989084839821,
        -0.16094540059566498,
        -0.010471726767718792,
        0.09076467156410217,
        -0.10501478612422943,
        -0.11427661031484604,
        -0.13377971947193146,
        0.0456404872238636,
        0.23821425437927246,
        0.21918274462223053,
        -0.05570928007364273,
        -0.25603538751602173,
        -0.24043361842632294,
        0.04035334661602974,
        0.04561294615268707,
        -0.2848101258277893,
        -0.01984233595430851,
        -0.0007409006357192993,
        -0.1967570036649704,
        -0.1253696233034134,
        0.08842786401510239,
        -0.0019288018811494112,
        -0.08847008645534515,
        0.25665876269340515,
        -0.030142776668071747,
        -0.007120732218027115,
        0.1402842402458191,
        -0.19877490401268005,
        -0.13224025070667267,
        0.3039335608482361,
        -0.16397640109062195,
        -0.22263629734516144,
        0.282949835062027,
        0.0772818922996521,
        -0.07549155503511429,
        -0.3125148415565491,
        -0.21430964767932892,
        -0.16401523351669312,
        0.1995665580034256,
        0.11415841430425644,
        -0.035087887197732925,
        -0.238068088889122,
        0.10716963559389114,
        -0.06356039643287659,
        0.033348508179187775,
        -0.017893891781568527,
        -0.05036843940615654,
        -0.1292593628168106,
        -0.061500705778598785,
        0.013491172343492508,
        0.038475245237350464,
        -0.08239226043224335,
        0.0010751867666840553,
        0.04735476151108742,
        -0.09415912628173828,
        0.18428972363471985,
        -0.0745672732591629,
        0.06325115263462067,
        -0.035532623529434204,
        0.07606599479913712,
        0.17196135222911835,
        -0.09572923183441162,
        0.036034390330314636,
        -0.09189291298389435,
        -0.1520812213420868,
        -0.15379351377487183,
        0.18250320851802826,
        0.1745186448097229,
        -0.0067018200643360615,
        0.10510729253292084,
        -0.021787384524941444,
        0.01354805938899517,
        0.0429554283618927,
        0.1387333869934082,
        -0.06730473786592484,
        0.19208526611328125,
        0.14802275598049164,
        0.02651466801762581,
        0.08765212446451187,
        0.09764553606510162,
        -0.1901322305202484,
        0.11100253462791443,
        -0.01243814080953598,
        0.09550970047712326,
        -0.1216171383857727,
        -0.11979594081640244,
        0.13939891755580902,
        0.1700778752565384,
        -0.0008761832723394036,
        -0.18044240772724152,
        0.14325371384620667,
        0.13777370750904083,
        -0.28801167011260986,
        -0.01961372420191765,
        0.02347801811993122,
        0.020139548927545547,
        0.08041346073150635,
        0.11088204383850098,
        0.21517497301101685,
        -0.2654031217098236,
        -0.11299431324005127,
        -0.0042411936447024345,
        0.12100441753864288,
        0.04352764040231705,
        -0.13604876399040222,
        -0.05210915952920914,
        -0.004248051438480616,
        0.07890146225690842,
        0.08653845638036728,
        0.12204670906066895,
        -0.15856903791427612,
        0.1660308837890625,
        -0.14305825531482697,
        0.05611836537718773,
        0.08106347173452377,
        0.08815982192754745,
        -0.27149680256843567,
        0.035162996500730515,
        0.20158623158931732,
        -0.13229012489318848,
        -0.06894238293170929,
        0.1403583437204361,
        -0.1977114975452423,
        0.09975292533636093,
        0.22141367197036743,
        -0.24875706434249878,
        0.0019133280729874969,
        0.14979268610477448,
        -0.1531769037246704,
        -0.11629249155521393,
        -0.06268510222434998,
        0.16404598951339722,
        0.01957443170249462,
        0.24201808869838715,
        0.2246095985174179,
        0.05173257738351822,
        0.04022843390703201,
        -0.021102458238601685,
        -0.10316682606935501,
        0.2349463701248169,
        -0.01574040576815605,
        -0.04408036172389984,
        -0.053900014609098434,
        -0.014357037842273712,
        0.1498173326253891,
        -0.3575723171234131,
        -0.12082969397306442,
        -0.2322922646999359,
        -0.042033202946186066,
        -0.09358180314302444,
        -0.035152409225702286,
        -0.047904957085847855,
        -0.2093060463666916,
        -0.1147400289773941,
        -0.07902584969997406,
        0.06038299575448036,
        0.057714495807886124,
        0.003931812476366758,
        -0.012857106514275074,
        0.44218528270721436,
        -0.31091466546058655,
        0.053683359175920486,
        -0.00601166533306241,
        0.20132501423358917,
        0.02421186864376068,
        -0.10349275916814804,
        0.29792752861976624,
        -0.19397494196891785,
        -0.25049710273742676,
        0.05151795223355293,
        -0.23192918300628662,
        -0.10985051840543747,
        0.05773206427693367,
        -0.018079537898302078,
        -0.05913754552602768,
        0.14226852357387543,
        -0.03858242556452751,
        -0.18424546718597412,
        0.13361550867557526,
        -0.044795431196689606,
        0.06276845932006836,
        0.14823715388774872,
        -0.1157674491405487,
        -0.060726698487997055,
        -0.019901305437088013,
        0.24542014300823212,
        -0.14822156727313995,
        0.03719976544380188,
        0.244358628988266,
        -0.22960902750492096,
        -0.0073223537765443325,
        0.20967277884483337,
        0.06567692011594772,
        0.02634487859904766,
        0.12663458287715912,
        0.1049722358584404,
        0.028181668370962143,
        -0.32266560196876526,
        -0.02441338077187538,
        -0.06792525202035904,
        0.17641431093215942,
        0.10554113239049911,
        0.09969334304332733,
        -0.04485572129487991,
        -0.03264433890581131,
        -0.06508487462997437,
        0.1783061921596527,
        -0.18400558829307556,
        -0.08422655612230301,
        0.040852878242731094,
        -0.08781205862760544,
        -0.18174242973327637,
        0.21709491312503815,
        -0.2693377435207367,
        -0.006898135412484407,
        0.18132564425468445,
        -0.18192915618419647,
        0.10237128287553787,
        -0.004117857199162245,
        -0.11938401311635971,
        0.008777025155723095,
        0.09738878905773163,
        0.030280962586402893,
        -0.15591074526309967,
        0.07195184379816055,
        -0.05373118817806244,
        -3.261554957134649e-05,
        0.02178260125219822,
        0.051226772367954254,
        0.01526639610528946,
        0.008348028175532818,
        -0.08548756688833237,
        0.062464192509651184,
        -0.0830516442656517,
        -0.06132478266954422,
        -0.07548077404499054,
        0.11508165299892426,
        0.001499469275586307,
        0.018530748784542084,
        0.014839155599474907,
        -0.006695826072245836,
        0.04137777164578438,
        0.05782610550522804,
        0.05337008461356163,
        -0.23197707533836365,
        -0.5004010796546936,
        0.9036396741867065,
        0.26893848180770874,
        -0.5308453440666199,
        0.2264164686203003,
        -0.09827953577041626,
        0.022661440074443817,
        0.4763992130756378,
        -0.7792230248451233,
        1.0915961265563965,
        0.5922729969024658,
        -0.08005428314208984,
        -0.30681148171424866,
        0.2077135443687439,
        -0.8785188794136047,
        0.037129972130060196,
        -0.2804478704929352,
        0.02784905396401882,
        -0.28926339745521545,
        0.15324386954307556,
        0.20783878862857819,
        0.33536139130592346,
        0.008358204737305641,
        0.19482026994228363,
        -0.10873871296644211,
        0.23333309590816498,
        0.16815657913684845,
        -0.23484978079795837,
        -0.10806220024824142,
        -0.271120548248291,
        -0.24052904546260834,
        0.23369377851486206,
        0.053948141634464264,
        0.19912993907928467,
        0.3191471993923187,
        0.23249900341033936,
        0.18161821365356445,
        -0.14838503301143646,
        -0.20669646561145782,
        -0.29607436060905457,
        0.13081185519695282,
        -0.09231174737215042,
        -0.15930326282978058,
        0.3268769085407257,
        0.2000020295381546,
        0.07230076938867569,
        -0.028626902028918266,
        -0.0852876827120781,
        -0.30824387073516846,
        0.10232380032539368,
        -0.24534384906291962,
        0.18944375216960907,
        -0.23622919619083405,
        -0.0955195426940918,
        -0.24839650094509125,
        0.13260266184806824,
        -0.03424184024333954,
        -0.40213438868522644,
        0.3187938630580902,
        0.13865669071674347,
        -0.3747161626815796,
        -0.17804570496082306,
        0.24087640643119812,
        0.20596493780612946,
        -0.0681336298584938,
        0.31585702300071716,
        0.05101033300161362,
        -0.15268748998641968,
        0.07553234696388245,
        -0.2347734272480011,
        0.1903022676706314,
        0.25808119773864746,
        -0.032052166759967804,
        -0.06385592371225357,
        0.3404291570186615,
        0.20469069480895996,
        0.021672485396265984,
        0.20442642271518707,
        2.1726411432609893e-05,
        -0.09184637665748596,
        -0.06337711960077286,
        0.015494623221457005,
        -0.20445562899112701,
        -0.1333988904953003,
        -0.301595002412796,
        0.08197498321533203,
        -0.19073449075222015,
        0.14583931863307953,
        -0.05963067337870598,
        -0.14972834289073944,
        0.17811104655265808,
        -0.4710257351398468,
        -0.2813914716243744,
        0.4118134379386902,
        -0.05104948952794075,
        -0.08279448002576828,
        -0.12223514169454575,
        -0.1475970447063446,
        -0.18156075477600098,
        -0.20607395470142365,
        -0.07059483230113983,
        0.18811656534671783,
        0.005866701249033213,
        -0.13105110824108124,
        -0.14444680511951447,
        0.21447965502738953,
        0.00032304535852745175,
        -0.132747620344162,
        0.3395000100135803,
        0.19890189170837402,
        0.003722471883520484,
        0.27918460965156555,
        0.4237704277038574,
        -0.153915137052536,
        0.25564032793045044,
        0.1755196750164032,
        0.06074961647391319,
        -0.19864222407341003,
        -0.02732190117239952,
        -0.4172607362270355,
        0.2919122576713562,
        0.32539889216423035,
        -0.31326398253440857,
        0.16543914377689362,
        0.34988659620285034,
        0.2253538966178894,
        0.06356807053089142,
        0.2680312693119049,
        0.01983541063964367,
        -0.007707642856985331,
        -0.1366831213235855,
        0.23471947014331818,
        -0.11388107389211655,
        0.1308387964963913,
        0.02887462079524994,
        0.15131312608718872,
        0.005971209611743689,
        -0.011362128891050816,
        0.20256632566452026,
        0.1065858006477356,
        -0.10703590512275696,
        -0.10447102785110474,
        -0.10421287268400192,
        -0.20915928483009338,
        0.23602795600891113,
        -0.13295768201351166,
        0.1557150036096573,
        0.148721843957901,
        -0.15057310461997986,
        -0.2127256840467453,
        -0.06084456667304039,
        -0.09142637997865677,
        0.08594530075788498,
        -0.270381361246109,
        0.3468714952468872,
        -0.26897764205932617,
        -0.13249048590660095,
        0.026060260832309723,
        0.18898598849773407,
        0.3361949622631073,
        0.02872660756111145,
        -0.213830828666687,
        0.3685133159160614,
        0.25048255920410156,
        0.3141289949417114,
        -0.2840845584869385,
        -0.0012621477944776416,
        -0.20875053107738495,
        0.15844334661960602,
        0.12143813073635101,
        -0.20029431581497192,
        0.17062479257583618,
        -0.0014030520105734468,
        -0.016705753281712532,
        -0.056597962975502014,
        0.22875554859638214,
        -0.23444360494613647,
        -0.015120658092200756,
        -0.23496338725090027,
        0.14654728770256042,
        -0.2783595621585846,
        0.10402406007051468,
        -0.08689083158969879,
        0.30824166536331177,
        0.020719321444630623,
        -0.39013752341270447,
        0.21048279106616974,
        0.01814867928624153,
        -0.27630338072776794,
        -0.058458566665649414,
        0.2606493830680847,
        -0.0366513691842556,
        0.0828460082411766,
        -0.10829488933086395,
        0.14434672892093658,
        -0.10393177717924118,
        0.06745081394910812,
        0.10394536703824997,
        0.0371149517595768,
        -0.07210053503513336,
        -0.15622113645076752,
        -0.30935540795326233,
        0.34028613567352295,
        -0.21707478165626526,
        -0.3133854269981384,
        0.20357784628868103,
        0.20851971209049225,
        -0.3202497661113739,
        -0.33040952682495117,
        0.025369849056005478,
        -0.2200453281402588,
        -0.13925303518772125,
        -0.15695439279079437,
        -0.22716958820819855,
        -0.3627224564552307,
        0.22579024732112885,
        -0.009671543724834919,
        -0.17155085504055023,
        0.14158616960048676,
        -0.17526307702064514,
        0.3257168233394623,
        0.330635666847229,
        0.19809550046920776,
        -0.20388588309288025,
        0.090826615691185,
        -0.06536029279232025,
        -0.11990627646446228,
        -0.12882594764232635,
        -0.3891266882419586,
        0.17227168381214142,
        -0.21765081584453583,
        0.0583772137761116,
        0.014409242197871208,
        -0.008013440296053886,
        -0.04776163771748543,
        -0.12269019335508347,
        0.13248570263385773,
        -0.1793898195028305,
        0.1700407713651657,
        -0.05087003484368324,
        0.16098760068416595,
        -0.09502607583999634,
        0.005656322930008173,
        -0.06257364898920059,
        -0.0681685209274292,
        0.028038762509822845,
        -0.2495812028646469,
        0.35605502128601074,
        0.15684212744235992,
        -0.08255937695503235,
        0.2798791527748108,
        -0.055615417659282684,
        -0.05529822036623955,
        0.021961906924843788,
        -0.2042984515428543,
        -0.3344152867794037,
        -0.23889166116714478,
        -0.226617693901062,
        -0.36094629764556885,
        -0.185776486992836,
        -0.14212025701999664,
        0.07420159131288528,
        -0.3482086658477783,
        0.16476309299468994,
        0.07557889074087143,
        0.06133329123258591,
        0.2824179530143738,
        -0.32844415307044983,
        -0.34459492564201355,
        0.019942980259656906,
        0.049411457031965256,
        -0.0637446716427803,
        -0.011601896025240421,
        0.14453445374965668,
        -0.08434164524078369,
        -0.07819554209709167,
        0.29803934693336487,
        0.15447047352790833,
        0.02816607803106308,
        -0.2914528250694275,
        -0.2410413771867752,
        0.037315499037504196,
        0.055102620273828506,
        0.27809256315231323,
        0.1577455699443817,
        0.06474845856428146,
        -0.159697026014328,
        0.09619734436273575,
        -0.00246773986145854,
        0.030406290665268898,
        -0.048188917338848114,
        -0.03749176859855652,
        0.12792043387889862,
        0.03218506649136543,
        -0.20135284960269928,
        0.008737770840525627,
        -0.05045907571911812,
        0.03299673646688461,
        0.13642530143260956,
        0.027653224766254425,
        -0.10417818278074265,
        -0.18073610961437225,
        0.10187415778636932,
        -0.011444075964391232,
        0.035647086799144745,
        0.16060595214366913,
        -0.04681199789047241,
        -0.04764043167233467,
        -0.1436559408903122,
        0.09450045228004456,
        0.029070785269141197,
        -0.033445071429014206,
        -0.27304625511169434,
        -0.07810159772634506,
        0.05389918014407158,
        0.0694691613316536,
        -0.032559432089328766,
        -0.09941539913415909,
        -0.33492833375930786,
        0.15601782500743866,
        -0.023994091898202896,
        -0.33037811517715454,
        0.00609173160046339,
        -0.1757405549287796,
        -0.07880983501672745,
        -0.0665777176618576,
        -0.04038983955979347,
        -0.23015816509723663,
        -0.034477245062589645,
        -0.350292444229126,
        -0.3958091139793396,
        -0.11447454988956451,
        0.040701527148485184,
        -0.042068708688020706,
        -0.03305546194314957,
        -0.17390663921833038,
        0.644740641117096,
        0.04593249782919884,
        0.26634681224823,
        -0.22818247973918915,
        -0.038460858166217804,
        -0.4006068706512451,
        -0.18628185987472534,
        0.08277351409196854,
        -0.030088385567069054,
        0.05427471175789833,
        0.26321813464164734,
        -0.16494016349315643,
        0.07175516337156296,
        0.1138346716761589,
        -0.05159061402082443,
        -0.18064160645008087,
        -0.20798476040363312,
        0.11028780043125153,
        -0.08266745507717133,
        0.04712051525712013,
        -0.03673338517546654,
        0.07470132410526276,
        -0.19489213824272156,
        0.05339658260345459,
        0.0532224103808403,
        0.08038301765918732,
        0.27556532621383667,
        0.07575763016939163,
        0.14138565957546234,
        -0.562880277633667,
        0.04270249605178833,
        0.09646660089492798,
        -0.35632726550102234,
        0.11746043711900711,
        0.005439049564301968,
        -0.3214910924434662,
        -0.09077110886573792,
        0.007548374589532614,
        -0.4568236768245697,
        -0.12810160219669342,
        -0.1362791359424591,
        0.1552942395210266,
        0.28813403844833374,
        0.1379353106021881,
        -0.12091872841119766,
        0.3750966489315033,
        0.02762855775654316,
        -0.17288795113563538,
        -0.10893282294273376,
        0.1618288904428482,
        0.22728033363819122,
        0.0011232409160584211,
        -0.16975992918014526,
        -0.02001386322081089,
        -0.2253282219171524,
        0.041140902787446976,
        0.029752057045698166,
        0.07088654488325119,
        -0.18226739764213562,
        0.021165631711483,
        0.013765368610620499,
        -0.028505178168416023,
        -0.3511105179786682,
        -0.03606517240405083,
        -0.09804730862379074,
        0.16993708908557892,
